
\data\
ngram 1=147
ngram 2=315
ngram 3=68
ngram 4=41
ngram 5=30
ngram 6=25
ngram 7=20
ngram 8=16
ngram 9=12
ngram 10=12

\1-grams:
-0.8229935	</s>
-99	<s>	-0.3462425
-2.323596	กด	-0.2982726
-2.198657	กลับ	-0.2755592
-2.101747	กัน	-0.4031314
-2.499687	กับ	-0.2982726
-2.323596	การ	-0.2975805
-2.323596	ก็	-0.4729785
-2.499687	ก่อน	-0.2996534
-2.101747	ขวา	-0.2907154
-2.198657	ขอ	-0.2913014
-1.897627	ของ	-0.3662456
-2.499687	ขอบ	-0.2996534
-2.198657	ขึ้น	-0.2934045
-1.897627	ขโมย	-0.5124468
-2.323596	ข้าง	-0.2968872
-2.499687	ข้าพเจ้า	-0.2996534
-2.499687	ข้าม	-0.2996534
-2.198657	คน	-0.2954975
-2.499687	ความ	-0.2996534
-2.323596	ความเร็ว	-0.2254074
-2.499687	คิวบิด	-0.2968872
-2.499687	คุกกี้	-0.2996534
-2.499687	ค่า	-0.2989635
-2.323596	จง	-0.4729785
-2.198657	จะ	-0.2762872
-2.499687	จัด	-0.2989635
-2.499687	จาก	-0.2982726
-2.499687	ฉัน	-0.2934045
-2.198657	ชวาล	-0.5313172
-2.323596	ชิ้น	-0.4743638
-2.499687	ชีวิต	-0.2982726
-1.955619	ชื่อ	-0.3825527
-2.198657	ช่อง	-0.3924075
-2.499687	ซื้อ	-0.2954975
-2.101747	ซ้าย	-0.4023158
-2.499687	ดราก้อน	-0.2302872
-2.499687	ดี	-0.2975805
-2.198657	ดู	-0.2934045
-2.101747	ด้าน	-0.2898936
-2.499687	ติวโตเรียล	-0.2302872
-1.800717	ตี	-0.3400602
-2.323596	ทอย	-0.2842165
-2.022566	ทั้งหมด	-0.762764
-2.323596	ทาง	-0.2941033
-2.499687	ทำนาย	-0.2975805
-2.499687	ทำลาย	-0.2996534
-2.499687	ที	-0.2302872
-2.101747	ที่	-0.2791874
-2.323596	ธรรมดา	-0.4063785
-2.499687	นาย	-0.2302872
-2.198657	นี้	-0.5313172
-2.323596	บน	-0.4063785
-2.499687	บลู	-0.2996534
-2.022566	บวก	-0.7740085
-2.198657	บอส	-0.3239501
-2.323596	บี	-0.2278542
-2.499687	บ้าง	-0.2302872
-2.499687	ประสงค์	-0.2982726
-1.955619	ป้องกัน	-0.2577089
-2.323596	ผู้เล่น	-0.2286667
-2.101747	พลัง	-0.3554281
-2.323596	พิเศษ	-0.4063785
-2.499687	ฟ้า	-0.2996534
-2.499687	มอน	-0.2302872
-2.499687	มอนเตอร์	-0.2302872
-2.323596	มัน	-0.2934045
-2.499687	มั่ว	-0.2961929
-1.897627	มา	-0.2494048
-2.499687	มิตรภาพ	-0.2975805
-2.499687	มี	-0.2996534
-2.323596	รัว	-0.2278542
-2.499687	ร้าน	-0.2302872
-2.198657	ร้านค้า	-0.5313172
-2.198657	ลง	-0.2927046
-2.499687	ลอง	-0.2968872
-2.499687	ลาส	-0.2982726
-2.499687	ลูกเต๋า	-0.2302872
-2.323596	ล่าง	-0.4063785
-2.022566	สลับ	-0.3478855
-2.499687	สะกด	-0.2961929
-2.323596	สุด	-0.4063785
-2.198657	สุ่ม	-0.3190335
-2.022566	หนึ่ง	-0.7074085
-2.101747	หน่อย	-0.6282272
-1.846475	หน้า	-0.2840974
-2.499687	หมด	-0.2302872
-2.198657	หยุด	-0.2954975
-2.499687	หลบหลีก	-0.2302872
-2.499687	อยู่	-0.2989635
-2.022566	ออก	-0.4034029
-2.499687	อะไร	-0.2989635
-1.686774	อัพ	-0.4074554
-2.499687	อาย	-0.2996534
-2.499687	อาร์	-0.2989635
-2.323596	อีก	-0.4708922
-2.499687	เกมส์	-0.2975805
-2.499687	เกลือ	-0.2302872
-2.499687	เข้าใจ	-0.2302872
-2.323596	เงิน	-0.2934045
-2.499687	เจน	-0.2961929
-2.022566	เดิน	-0.5272545
-2.323596	เดิม	-0.4063785
-2.198657	เถอะ	-0.5313172
-2.499687	เท่านั้น	-0.2302872
-1.955619	เปลี่ยน	-0.5816602
-2.022566	เปิด	-0.4012259
-2.323596	เป็น	-0.2954975
-2.499687	เผื่อ	-0.2982726
-2.022566	เพิ่ม	-0.4183432
-1.897627	เพื่อน	-0.5792227
-2.198657	เลย	-0.5313172
-1.759324	เลือก	-0.4581595
-2.198657	เลือด	-0.3223175
-2.499687	เลื่อน	-0.2856427
-2.323596	เล่น	-0.2975805
-2.101747	เวท	-0.4014987
-2.499687	เวทมนตร์	-0.2302872
-2.198657	เวทมนต์	-0.5313172
-2.499687	เหมือน	-0.2989635
-2.323596	เหรียญ	-0.2286667
-2.323596	เอ	-0.4750548
-2.499687	เอง	-0.2302872
-2.323596	เอส	-0.2975805
-1.955619	เอา	-0.5965275
-2.499687	แตะ	-0.2996534
-2.499687	แต่	-0.2996534
-2.022566	แต้ม	-0.7740085
-2.323596	แบบ	-0.2954975
-2.499687	แย่ง	-0.2996534
-2.323596	แสตท	-0.4750548
-2.323596	โกวาจี	-0.2278542
-1.955619	โจมตี	-0.2593761
-2.323596	โดกาปอง	-0.2270401
-2.499687	โปรด	-0.2961929
-2.499687	โอ	-0.2989635
-2.323596	ใกล้	-0.2954975
-2.323596	ใช้	-0.2927046
-2.323596	ใน	-0.2968872
-1.955619	ให้	-0.386098
-2.022566	ได้	-0.2104303
-1.458294	ไป	-0.4540726
-2.198657	ไม่	-0.2913014
-2.499687	ไวท์	-0.2996534
-2.499687	ไหน	-0.2989635
-2.198657	ไอเทม	-0.2212986
-2.323596	ไอเท็ม	-0.4063785

\2-grams:
-2.130334	<s> กด
-1.653213	<s> กลับ
-1.653213	<s> ขอ
-1.829304	<s> ขึ้น	0
-1.528274	<s> ขโมย	-0.07918122
-2.130334	<s> ข้าพเจ้า
-2.130334	<s> จง
-2.130334	<s> จะ	0
-2.130334	<s> จัด
-2.130334	<s> ฉัน
-2.130334	<s> ซื้อ
-1.829304	<s> ทอย
-1.653213	<s> ป้องกัน
-2.130334	<s> มั่ว
-1.653213	<s> มา
-2.130334	<s> ลง
-2.130334	<s> ลอง	0
-1.829304	<s> สลับ
-2.130334	<s> สะกด
-1.829304	<s> สุ่ม	-0.2552725
-2.130334	<s> หยุด
-2.130334	<s> ออก
-1.285236	<s> อัพ	-0.02424599
-2.130334	<s> เจน
-1.528274	<s> เดิน	-0.3309932
-1.352183	<s> เปลี่ยน	0
-1.431364	<s> เปิด	0
-1.431364	<s> เพิ่ม	0
-1.176091	<s> เลือก	-0.06279084
-2.130334	<s> เลื่อน	0
-2.130334	<s> เล่น
-2.130334	<s> เอส
-1.431364	<s> เอา	-0.3521825
-2.130334	<s> แย่ง
-1.829304	<s> โกวาจี
-1.653213	<s> โจมตี
-2.130334	<s> ใช้
-2.130334	<s> ให้
-2.130334	<s> ได้
-1.829304	<s> ไป	-0.4481576
-2.130334	<s> ไม่
-0.60206	กด ข้าม
-0.60206	กด โอ
-0.7781513	กลับ มา
-0.7781513	กลับ ออก
-0.7781513	กลับ ไป
-0.7781513	กัน </s>
-0.30103	กัน เถอะ	0
-0.30103	กับ คน
-0.60206	การ มัน
-0.60206	การ หลบหลีก
-0.1760913	ก็ ได้
-0.30103	ก่อน บ้าง	0
-0.544068	ขวา </s>
-0.845098	ขวา ซ้าย	0
-0.845098	ขวา เอ	0
-0.7781513	ขอ ดู
-0.7781513	ขอ เดิน
-0.7781513	ขอ ไม่
-1.079181	ของ จาก
-1.079181	ของ ชิ้น
-1.079181	ของ ร้านค้า
-0.7781513	ของ เพื่อน	0
-0.7781513	ของ ใน
-0.30103	ขอบ ฟ้า	0
-0.7781513	ขึ้น ขึ้น	0
-0.7781513	ขึ้น ข้าง
-0.7781513	ขึ้น ลง	0
-0.39794	ขโมย ของ	-0.0669468
-0.69897	ขโมย เงิน
-1	ขโมย ไอเทม
-0.60206	ข้าง บน
-0.60206	ข้าง ล่าง
-0.30103	ข้าพเจ้า มี
-0.30103	ข้าม ติวโตเรียล
-0.7781513	คน ดี
-0.7781513	คน นี้
-0.7781513	คน ไหน
-0.30103	ความ ประสงค์
-0.60206	ความเร็ว </s>
-0.60206	ความเร็ว บวก
-0.30103	คิวบิด ออก
-0.30103	คุกกี้ ทำนาย
-0.30103	ค่า การ
-0.1760913	จง ออก	-0.2730013
-0.7781513	จะ โจมตี
-0.7781513	จะ ได้	0
-0.7781513	จะ ไป	0
-0.30103	จัด การ
-0.30103	จาก ร้านค้า
-0.30103	ฉัน เลือก
-0.1249387	ชวาล </s>
-0.1760913	ชิ้น นี้	0.1249388
-0.30103	ชีวิต หยุด
-1	ชื่อ ชวาล
-1	ชื่อ เป็น
-1	ชื่อ เพื่อน
-0.5228788	ชื่อ ให้	-0.0669468
-0.39794	ช่อง ที่	0
-0.69897	ช่อง ใกล้
-0.30103	ซื้อ ของ
-0.4771213	ซ้าย </s>
-0.4771213	ซ้าย ขวา	0
-0.30103	ดราก้อน </s>
-0.30103	ดี กัน
-0.7781513	ดู ช่อง
-0.7781513	ดู เวทมนต์
-0.7781513	ดู ไอเท็ม
-0.90309	ด้าน ขวา
-0.90309	ด้าน ซ้าย
-0.90309	ด้าน บน
-0.90309	ด้าน ล่าง
-0.30103	ติวโตเรียล </s>
-1.20412	ตี ก่อน	0
-1.20412	ตี บวก
-1.20412	ตี บอส
-0.90309	ตี ผู้เล่น
-1.20412	ตี มอน
-1.20412	ตี มอนเตอร์
-0.90309	ตี เพื่อน
-0.60206	ทอย ลูกเต๋า
-0.60206	ทอย ไป
-0.07918125	ทั้งหมด ไป	-0.7017629
-0.60206	ทาง ขวา
-0.60206	ทาง ซ้าย
-0.30103	ทำนาย กัน
-0.30103	ทำลาย มิตรภาพ
-0.30103	ที </s>
-0.90309	ที่ ช่อง	0
-0.90309	ที่ สุด	0
-0.90309	ที่ อยู่	0
-0.90309	ที่ ไป
-0.1760913	ธรรมดา </s>
-0.30103	นาย </s>
-0.1249387	นี้ </s>
-0.1760913	บน </s>
-0.30103	บลู อาย
-0.07918125	บวก หนึ่ง	0
-0.39794	บอส </s>
-0.69897	บอส เลย
-0.60206	บี </s>
-0.60206	บี เอ	0
-0.30103	บ้าง </s>
-0.30103	ประสงค์ จะ
-0.7403627	ป้องกัน </s>
-1.041393	ป้องกัน ธรรมดา
-1.041393	ป้องกัน บวก
-1.041393	ป้องกัน พิเศษ
-1.041393	ป้องกัน เวท
-0.60206	ผู้เล่น </s>
-0.60206	ผู้เล่น เท่านั้น
-0.845098	พลัง ป้องกัน
-0.845098	พลัง เวทมนต์
-0.544068	พลัง โจมตี	-0.3899711
-0.1760913	พิเศษ </s>
-0.30103	ฟ้า แต่	0
-0.30103	มอน </s>
-0.30103	มอนเตอร์ </s>
-0.60206	มัน เลย
-0.60206	มัน ให้
-0.30103	มั่ว ชื่อ
-0.8129134	มา </s>
-1.113943	มา ทำลาย
-1.113943	มา บลู
-1.113943	มา หน้า
-1.113943	มา เป็น
-1.113943	มา เล่น
-0.30103	มิตรภาพ กัน
-0.30103	มี ความ
-0.60206	รัว </s>
-0.60206	รัว รัว
-0.30103	ร้าน </s>
-0.1249387	ร้านค้า </s>
-0.7781513	ลง ข้าง
-0.7781513	ลง ซ้าย	0
-0.7781513	ลง ลง	0
-0.30103	ลอง สลับ	0
-0.30103	ลาส บอส
-0.30103	ลูกเต๋า </s>
-0.1760913	ล่าง </s>
-0.90309	สลับ </s>
-0.60206	สลับ สลับ
-0.60206	สลับ เหรียญ	0
-0.30103	สะกด ชื่อ
-0.1760913	สุด </s>
-0.69897	สุ่ม </s>
-0.39794	สุ่ม ตี
-0.07918125	หนึ่ง </s>
-0.09691001	หน่อย </s>
-0.845098	หน้า </s>
-0.845098	หน้า เดิม	0
-1.146128	หน้า เวทมนตร์
-1.146128	หน้า เวทมนต์
-1.146128	หน้า ไอเทม
-1.146128	หน้า ไอเท็ม
-0.30103	หมด </s>
-0.7781513	หยุด กับ
-0.7781513	หยุด ชีวิต
-0.7781513	หยุด หยุด
-0.30103	หลบหลีก </s>
-0.30103	อยู่ ใกล้	0
-0.4259687	ออก มา	-0.1492981
-0.90309	ออก อะไร
-0.90309	ออก ไป
-0.30103	อะไร ก็
-0.9777236	อัพ ความเร็ว
-1.278754	อัพ ตี
-0.9777236	อัพ ป้องกัน
-1.278754	อัพ พลัง
-0.9777236	อัพ เลือด
-0.9777236	อัพ เวท
-0.9777236	อัพ แสตท	0
-0.30103	อาย ไวท์
-0.30103	อาร์ จง
-0.1760913	อีก หน้า	-0.4101745
-0.30103	เกมส์ กัน
-0.30103	เกลือ </s>
-0.30103	เข้าใจ </s>
-0.60206	เงิน มัน
-0.60206	เงิน เพื่อน
-0.30103	เจน ชื่อ
-0.845098	เดิน เอง
-0.243038	เดิน ไป	-0.6389721
-0.1760913	เดิม </s>
-0.1249387	เถอะ </s>
-0.30103	เท่านั้น </s>
-0.4259687	เปลี่ยน ชื่อ
-0.4259687	เปลี่ยน ไป	-0.1776451
-0.60206	เปิด ดู
-0.60206	เปิด หน้า
-0.90309	เปิด ไป
-0.60206	เป็น คน
-0.60206	เป็น ชวาล
-0.30103	เผื่อ จะ	0
-0.90309	เพิ่ม ค่า
-0.4259687	เพิ่ม พลัง
-0.90309	เพิ่ม เลือด
-0.1760913	เพื่อน </s>
-0.9542425	เพื่อน คน
-0.1249387	เลย </s>
-0.69897	เลือก ขโมย
-1.176091	เลือก ช่อง
-0.5740313	เลือก ตี
-1.176091	เลือก นาย
-1.176091	เลือก ใช้
-0.39794	เลือด </s>
-0.69897	เลือด บวก
-0.30103	เลื่อน ไป	0
-0.60206	เล่น เกมส์
-0.60206	เล่น โดกาปอง
-0.30103	เวท </s>
-0.7781513	เวท บวก
-0.30103	เวทมนตร์ </s>
-0.1249387	เวทมนต์ </s>
-0.30103	เหมือน โดกาปอง	0
-0.60206	เหรียญ </s>
-0.60206	เหรียญ เผื่อ	0
-0.1760913	เอ บี	0
-0.30103	เอง </s>
-0.60206	เอส อาร์
-0.60206	เอส เอส
-0.90309	เอา คิวบิด
-0.20412	เอา แต้ม	0
-0.30103	แตะ ขอบ	0
-0.30103	แต่ เหมือน	0
-0.07918125	แต้ม ทั้งหมด	0
-0.60206	แบบ ชวาล
-0.60206	แบบ สุ่ม
-0.30103	แย่ง ลาส
-0.1760913	แสตท แบบ
-0.60206	โกวาจี </s>
-0.60206	โกวาจี กด
-0.7403627	โจมตี </s>
-1.041393	โจมตี ธรรมดา
-1.041393	โจมตี บอส
-1.041393	โจมตี พิเศษ
-1.041393	โจมตี เวท
-0.60206	โดกาปอง </s>
-0.60206	โดกาปอง ไม่	0
-0.30103	โปรด เอา
-0.30103	โอ รัว
-0.60206	ใกล้ ที่	0
-0.60206	ใกล้ สุด
-0.60206	ใช้ ของ
-0.60206	ใช้ ไอเทม
-0.60206	ใน ร้าน
-0.60206	ใน ร้านค้า
-1	ให้ คุกกี้
-0.5228788	ให้ หน่อย	0.09691
-1	ให้ หมด
-1	ให้ เพื่อน
-1	ได้ </s>
-1	ได้ ตี	0
-1	ได้ หน่อย
-1	ได้ โปรด
-1	ได้ ให้
-0.8893017	ไป ด้าน
-1.190332	ไป ทาง
-1.491362	ไป ที
-1.491362	ไป ที่	0
-1.01424	ไป หน้า
-0.7923917	ไป อัพ
-1.190332	ไป อีก	0
-1.491362	ไป เลย
-1.491362	ไป แตะ	0
-1.491362	ไป ได้
-0.7781513	ไม่ ตี
-0.7781513	ไม่ เกลือ
-0.7781513	ไม่ เข้าใจ	0
-0.30103	ไวท์ ดราก้อน
-0.30103	ไหน ก็
-0.7781513	ไอเทม </s>
-0.7781513	ไอเทม ของ
-0.7781513	ไอเทม ชิ้น
-0.1760913	ไอเท็ม </s>

\3-grams:
-0.30103	ตี ก่อน บ้าง	0
-0.845098	ซ้าย ขวา ซ้าย	0
-0.845098	ซ้าย ขวา เอ	0
-0.544068	ขโมย ของ ใน
-0.30103	แตะ ขอบ ฟ้า	0
-0.7781513	<s> ขึ้น ขึ้น	0
-0.7781513	ขึ้น ขึ้น ลง	0
-0.30103	<s> ขโมย ของ	-0.07572071
-0.7781513	<s> จะ ไป	0
-0.7781513	เผื่อ จะ ได้	0
-0.39794	ที่ ช่อง ที่	0
-0.4771213	ขวา ซ้าย ขวา	0
-0.4771213	ลง ซ้าย ขวา	0
-1.20412	ได้ ตี ก่อน	0
-0.07918125	แต้ม ทั้งหมด ไป	0
-0.90309	ช่อง ที่ อยู่	0
-0.90309	ใกล้ ที่ สุด	0
-0.90309	ไป ที่ ช่อง	0
-0.1760913	ชิ้น นี้ </s>
-0.60206	เอ บี เอ	0
-0.30103	ขอบ ฟ้า แต่	0
-0.39794	ออก มา </s>
-0.7781513	ขึ้น ลง ลง	0
-0.7781513	ลง ลง ซ้าย	0
-0.30103	<s> ลอง สลับ	0
-0.60206	ลอง สลับ เหรียญ	0
-0.1760913	<s> สุ่ม ตี
-0.07918125	บวก หนึ่ง </s>
-0.1249387	ให้ หน่อย </s>
-0.1760913	อีก หน้า </s>
-0.30103	ที่ อยู่ ใกล้	0
-0.1760913	จง ออก มา
-0.8129134	<s> อัพ แสตท	0
-0.1760913	ไป อีก หน้า	0
-0.09691001	<s> เดิน ไป	0
-0.1760913	หน้า เดิม </s>
-0.1249387	กัน เถอะ </s>
-0.4259687	<s> เปลี่ยน ชื่อ
-0.4259687	<s> เปลี่ยน ไป	0
-0.60206	<s> เปิด ดู
-0.60206	<s> เปิด หน้า
-0.30103	เหรียญ เผื่อ จะ	0
-0.4259687	<s> เพิ่ม พลัง
-0.1760913	ของ เพื่อน </s>
-0.6368221	<s> เลือก ขโมย
-0.5118834	<s> เลือก ตี
-0.30103	<s> เลื่อน ไป	0
-0.30103	แต่ เหมือน โดกาปอง	0
-0.60206	สลับ เหรียญ เผื่อ	0
-0.1760913	ขวา เอ บี	0
-0.1760913	บี เอ บี	0
-0.07918125	<s> เอา แต้ม	0
-0.30103	ไป แตะ ขอบ	0
-0.30103	ฟ้า แต่ เหมือน	0
-0.07918125	เอา แต้ม ทั้งหมด	0
-0.1760913	อัพ แสตท แบบ
-0.1760913	พลัง โจมตี </s>
-0.60206	เหมือน โดกาปอง ไม่	0
-0.60206	อยู่ ใกล้ ที่	0
-0.39794	ชื่อ ให้ หน่อย	0.1249388
-1	จะ ได้ ตี	0
-0.1760913	<s> ไป ทาง
-1.491362	จะ ไป แตะ	0
-0.07918125	ทั้งหมด ไป อัพ
-0.09691001	เดิน ไป ด้าน
-0.39794	เปลี่ยน ไป หน้า
-1.491362	เลื่อน ไป ที่	0
-0.7781513	โดกาปอง ไม่ เข้าใจ	0

\4-grams:
-0.30103	ได้ ตี ก่อน บ้าง	0
-0.845098	ขวา ซ้าย ขวา เอ	0
-0.845098	ลง ซ้าย ขวา ซ้าย	0
-0.39794	<s> ขโมย ของ ใน
-0.30103	ไป แตะ ขอบ ฟ้า	0
-0.7781513	<s> ขึ้น ขึ้น ลง	0
-0.7781513	เหรียญ เผื่อ จะ ได้	0
-0.39794	ไป ที่ ช่อง ที่	0
-0.4771213	ซ้าย ขวา ซ้าย ขวา	0
-0.4771213	ลง ลง ซ้าย ขวา	0
-1.20412	จะ ได้ ตี ก่อน	0
-0.07918125	เอา แต้ม ทั้งหมด ไป	0
-0.90309	ที่ ช่อง ที่ อยู่	0
-0.90309	อยู่ ใกล้ ที่ สุด	0
-0.90309	เลื่อน ไป ที่ ช่อง	0
-0.60206	ขวา เอ บี เอ	0
-0.30103	แตะ ขอบ ฟ้า แต่	0
-0.7781513	ขึ้น ขึ้น ลง ลง	0
-0.7781513	ขึ้น ลง ลง ซ้าย	0
-0.60206	<s> ลอง สลับ เหรียญ	0
-0.1760913	ชื่อ ให้ หน่อย </s>
-0.1760913	ไป อีก หน้า </s>
-0.30103	ช่อง ที่ อยู่ ใกล้	0
-0.30103	สลับ เหรียญ เผื่อ จะ	0
-0.30103	ฟ้า แต่ เหมือน โดกาปอง	0
-0.60206	ลอง สลับ เหรียญ เผื่อ	0
-0.1760913	ซ้าย ขวา เอ บี	0
-0.1760913	เอ บี เอ บี	0
-0.30103	จะ ไป แตะ ขอบ	0
-0.30103	ขอบ ฟ้า แต่ เหมือน	0
-0.07918125	<s> เอา แต้ม ทั้งหมด	0
-0.1760913	<s> อัพ แสตท แบบ
-0.60206	แต่ เหมือน โดกาปอง ไม่	0
-0.60206	ที่ อยู่ ใกล้ ที่	0
-1	เผื่อ จะ ได้ ตี	0
-1.491362	<s> จะ ไป แตะ	0
-0.07918125	แต้ม ทั้งหมด ไป อัพ
-0.09691001	<s> เดิน ไป ด้าน
-0.39794	<s> เปลี่ยน ไป หน้า
-1.491362	<s> เลื่อน ไป ที่	0
-0.7781513	เหมือน โดกาปอง ไม่ เข้าใจ	0

\5-grams:
-0.30103	จะ ได้ ตี ก่อน บ้าง	0
-0.845098	ซ้าย ขวา ซ้าย ขวา เอ	0
-0.845098	ลง ลง ซ้าย ขวา ซ้าย	0
-0.30103	จะ ไป แตะ ขอบ ฟ้า	0
-0.7781513	สลับ เหรียญ เผื่อ จะ ได้	0
-0.39794	เลื่อน ไป ที่ ช่อง ที่	0
-0.4771213	ลง ซ้าย ขวา ซ้าย ขวา	0
-0.4771213	ขึ้น ลง ลง ซ้าย ขวา	0
-1.20412	เผื่อ จะ ได้ ตี ก่อน	0
-0.07918125	<s> เอา แต้ม ทั้งหมด ไป	0
-0.90309	ไป ที่ ช่อง ที่ อยู่	0
-0.90309	ที่ อยู่ ใกล้ ที่ สุด	0
-0.90309	<s> เลื่อน ไป ที่ ช่อง	0
-0.60206	ซ้าย ขวา เอ บี เอ	0
-0.30103	ไป แตะ ขอบ ฟ้า แต่	0
-0.7781513	<s> ขึ้น ขึ้น ลง ลง	0
-0.7781513	ขึ้น ขึ้น ลง ลง ซ้าย	0
-0.30103	ที่ ช่อง ที่ อยู่ ใกล้	0
-0.30103	ลอง สลับ เหรียญ เผื่อ จะ	0
-0.30103	ขอบ ฟ้า แต่ เหมือน โดกาปอง	0
-0.60206	<s> ลอง สลับ เหรียญ เผื่อ	0
-0.1760913	ขวา ซ้าย ขวา เอ บี	0
-0.1760913	ขวา เอ บี เอ บี	0
-0.30103	<s> จะ ไป แตะ ขอบ	0
-0.30103	แตะ ขอบ ฟ้า แต่ เหมือน	0
-0.60206	ฟ้า แต่ เหมือน โดกาปอง ไม่	0
-0.60206	ช่อง ที่ อยู่ ใกล้ ที่	0
-1	เหรียญ เผื่อ จะ ได้ ตี	0
-0.07918125	เอา แต้ม ทั้งหมด ไป อัพ
-0.7781513	แต่ เหมือน โดกาปอง ไม่ เข้าใจ	0

\6-grams:
-0.30103	เผื่อ จะ ได้ ตี ก่อน บ้าง	0
-0.845098	ลง ซ้าย ขวา ซ้าย ขวา เอ	0
-0.845098	ขึ้น ลง ลง ซ้าย ขวา ซ้าย	0
-0.30103	<s> จะ ไป แตะ ขอบ ฟ้า	0
-0.7781513	ลอง สลับ เหรียญ เผื่อ จะ ได้	0
-0.39794	<s> เลื่อน ไป ที่ ช่อง ที่	0
-0.4771213	ลง ลง ซ้าย ขวา ซ้าย ขวา	0
-0.4771213	ขึ้น ขึ้น ลง ลง ซ้าย ขวา	0
-1.20412	เหรียญ เผื่อ จะ ได้ ตี ก่อน	0
-0.90309	เลื่อน ไป ที่ ช่อง ที่ อยู่	0
-0.90309	ช่อง ที่ อยู่ ใกล้ ที่ สุด	0
-0.60206	ขวา ซ้าย ขวา เอ บี เอ	0
-0.30103	จะ ไป แตะ ขอบ ฟ้า แต่	0
-0.7781513	<s> ขึ้น ขึ้น ลง ลง ซ้าย	0
-0.30103	ไป ที่ ช่อง ที่ อยู่ ใกล้	0
-0.30103	<s> ลอง สลับ เหรียญ เผื่อ จะ	0
-0.30103	แตะ ขอบ ฟ้า แต่ เหมือน โดกาปอง	0
-0.1760913	ซ้าย ขวา ซ้าย ขวา เอ บี	0
-0.1760913	ซ้าย ขวา เอ บี เอ บี	0
-0.30103	ไป แตะ ขอบ ฟ้า แต่ เหมือน	0
-0.60206	ขอบ ฟ้า แต่ เหมือน โดกาปอง ไม่	0
-0.60206	ที่ ช่อง ที่ อยู่ ใกล้ ที่	0
-1	สลับ เหรียญ เผื่อ จะ ได้ ตี	0
-0.07918125	<s> เอา แต้ม ทั้งหมด ไป อัพ
-0.7781513	ฟ้า แต่ เหมือน โดกาปอง ไม่ เข้าใจ	0

\7-grams:
-0.30103	เหรียญ เผื่อ จะ ได้ ตี ก่อน บ้าง	0
-0.845098	ลง ลง ซ้าย ขวา ซ้าย ขวา เอ	0
-0.845098	ขึ้น ขึ้น ลง ลง ซ้าย ขวา ซ้าย	0
-0.7781513	<s> ลอง สลับ เหรียญ เผื่อ จะ ได้	0
-0.4771213	ขึ้น ลง ลง ซ้าย ขวา ซ้าย ขวา	0
-0.4771213	<s> ขึ้น ขึ้น ลง ลง ซ้าย ขวา	0
-1.20412	สลับ เหรียญ เผื่อ จะ ได้ ตี ก่อน	0
-0.90309	<s> เลื่อน ไป ที่ ช่อง ที่ อยู่	0
-0.90309	ที่ ช่อง ที่ อยู่ ใกล้ ที่ สุด	0
-0.60206	ซ้าย ขวา ซ้าย ขวา เอ บี เอ	0
-0.30103	<s> จะ ไป แตะ ขอบ ฟ้า แต่	0
-0.30103	เลื่อน ไป ที่ ช่อง ที่ อยู่ ใกล้	0
-0.30103	ไป แตะ ขอบ ฟ้า แต่ เหมือน โดกาปอง	0
-0.1760913	ลง ซ้าย ขวา ซ้าย ขวา เอ บี	0
-0.1760913	ขวา ซ้าย ขวา เอ บี เอ บี	0
-0.30103	จะ ไป แตะ ขอบ ฟ้า แต่ เหมือน	0
-0.60206	แตะ ขอบ ฟ้า แต่ เหมือน โดกาปอง ไม่	0
-0.60206	ไป ที่ ช่อง ที่ อยู่ ใกล้ ที่	0
-1	ลอง สลับ เหรียญ เผื่อ จะ ได้ ตี	0
-0.7781513	ขอบ ฟ้า แต่ เหมือน โดกาปอง ไม่ เข้าใจ	0

\8-grams:
-0.30103	สลับ เหรียญ เผื่อ จะ ได้ ตี ก่อน บ้าง	0
-0.845098	ขึ้น ลง ลง ซ้าย ขวา ซ้าย ขวา เอ	0
-0.845098	<s> ขึ้น ขึ้น ลง ลง ซ้าย ขวา ซ้าย	0
-0.4771213	ขึ้น ขึ้น ลง ลง ซ้าย ขวา ซ้าย ขวา	0
-1.20412	ลอง สลับ เหรียญ เผื่อ จะ ได้ ตี ก่อน	0
-0.90309	ไป ที่ ช่อง ที่ อยู่ ใกล้ ที่ สุด	0
-0.60206	ลง ซ้าย ขวา ซ้าย ขวา เอ บี เอ	0
-0.30103	<s> เลื่อน ไป ที่ ช่อง ที่ อยู่ ใกล้	0
-0.30103	จะ ไป แตะ ขอบ ฟ้า แต่ เหมือน โดกาปอง	0
-0.1760913	ลง ลง ซ้าย ขวา ซ้าย ขวา เอ บี	0
-0.1760913	ซ้าย ขวา ซ้าย ขวา เอ บี เอ บี	0
-0.30103	<s> จะ ไป แตะ ขอบ ฟ้า แต่ เหมือน	0
-0.60206	ไป แตะ ขอบ ฟ้า แต่ เหมือน โดกาปอง ไม่	0
-0.60206	เลื่อน ไป ที่ ช่อง ที่ อยู่ ใกล้ ที่	0
-1	<s> ลอง สลับ เหรียญ เผื่อ จะ ได้ ตี	0
-0.7781513	แตะ ขอบ ฟ้า แต่ เหมือน โดกาปอง ไม่ เข้าใจ	0

\9-grams:
-0.30103	ลอง สลับ เหรียญ เผื่อ จะ ได้ ตี ก่อน บ้าง	0
-0.845098	ขึ้น ขึ้น ลง ลง ซ้าย ขวา ซ้าย ขวา เอ	0.1760913
-0.4771213	<s> ขึ้น ขึ้น ลง ลง ซ้าย ขวา ซ้าย ขวา	-0.2340832
-1.20412	<s> ลอง สลับ เหรียญ เผื่อ จะ ได้ ตี ก่อน	0
-0.90309	เลื่อน ไป ที่ ช่อง ที่ อยู่ ใกล้ ที่ สุด	0.1760913
-0.60206	ลง ลง ซ้าย ขวา ซ้าย ขวา เอ บี เอ	0.1760913
-0.30103	<s> จะ ไป แตะ ขอบ ฟ้า แต่ เหมือน โดกาปอง	-0.1760913
-0.1760913	ขึ้น ลง ลง ซ้าย ขวา ซ้าย ขวา เอ บี	-0.1760913
-0.1760913	ลง ซ้าย ขวา ซ้าย ขวา เอ บี เอ บี	-0.1760913
-0.60206	จะ ไป แตะ ขอบ ฟ้า แต่ เหมือน โดกาปอง ไม่	-0.2218487
-0.60206	<s> เลื่อน ไป ที่ ช่อง ที่ อยู่ ใกล้ ที่	-0.243038
-0.7781513	ไป แตะ ขอบ ฟ้า แต่ เหมือน โดกาปอง ไม่ เข้าใจ	0

\10-grams:
-0.30103	<s> ลอง สลับ เหรียญ เผื่อ จะ ได้ ตี ก่อน บ้าง
-0.30103	<s> ขึ้น ขึ้น ลง ลง ซ้าย ขวา ซ้าย ขวา เอ
-0.30103	<s> เลื่อน ไป ที่ ช่อง ที่ อยู่ ใกล้ ที่ สุด
-0.30103	ขึ้น ลง ลง ซ้าย ขวา ซ้าย ขวา เอ บี เอ
-0.30103	ลง ซ้าย ขวา ซ้าย ขวา เอ บี เอ บี </s>
-0.30103	ลอง สลับ เหรียญ เผื่อ จะ ได้ ตี ก่อน บ้าง </s>
-0.30103	เลื่อน ไป ที่ ช่อง ที่ อยู่ ใกล้ ที่ สุด </s>
-0.30103	ไป แตะ ขอบ ฟ้า แต่ เหมือน โดกาปอง ไม่ เข้าใจ </s>
-0.30103	ขึ้น ขึ้น ลง ลง ซ้าย ขวา ซ้าย ขวา เอ บี
-0.30103	ลง ลง ซ้าย ขวา ซ้าย ขวา เอ บี เอ บี
-0.30103	<s> จะ ไป แตะ ขอบ ฟ้า แต่ เหมือน โดกาปอง ไม่
-0.30103	จะ ไป แตะ ขอบ ฟ้า แต่ เหมือน โดกาปอง ไม่ เข้าใจ

\end\
