
\data\
ngram 1=56
ngram 2=188
ngram 3=133
ngram 4=86
ngram 5=23
ngram 6=2

\1-grams:
-0.605011	</s>
-99	<s>	-0.435774
-1.294221	กดปุ่ม	-0.657332
-1.646404	กดโอ	-0.5845545
-1.549494	กลับ	-0.4466677
-1.743314	ขวา	-0.5450467
-2.294221	ขึ้น	-0.3531619
-1.549494	ข้าง	-0.6752983
-2.050096	ชื่อ	-0.5997871
-1.743314	ซ้าย	-0.5450467
-2.159522	ตกลง	-0.5446282
-1.345374	ตอบ	-0.8804585
-2.159522	ถูกต้อง	-0.5446282
-1.947434	ทอย	-0.2936145
-2.050096	ทางไป	-0.5997871
-2.151554	ธรรมดา	-0.5750106
-2.072372	บน	-0.7211403
-1.771342	บวก	-0.2885995
-2.072372	ปุ	-0.1705003
-2.050096	ปุ่มกด	-0.5997871
-2.151554	พิเศษ	-0.5750106
-1.947434	มัน	-0.2936145
-1.771343	มา	-0.4134124
-1.947434	รอบ	-0.1770706
-1.880488	รัว	-0.3227788
-2.294221	ลง	-0.3531619
-1.771342	ลูกเต๋า	-0.3531617
-2.072372	ล่าง	-0.7211403
-1.947434	สลับ	-0.2961005
-2.151554	สามเหลี่ยม	-0.5750106
-2.151554	สี่เหลี่ยม	-0.5750106
-1.947434	สุด	-0.1770706
-1.470312	สุ่ม	-0.7529261
-1.771342	สแนป	-0.4697057
-2.151554	หนี	-0.5750106
-1.771342	หน้า	-0.4697056
-1.880488	หลาย	-0.3227788
-1.771342	ออก	-0.4544836
-1.771342	เดิม	-0.3531617
-2.159522	เยส	-0.5446282
-1.880488	เยอะ	-0.3227788
-1.771342	เลย	-0.3531617
-2.050096	เลือก	-0.5997871
-2.151554	เวทมนต์	-0.5750106
-1.947434	เหรียญ	-0.1770706
-2.151554	เอ็ค	-0.5750106
-1.947434	โกวาจี	-0.1770706
-2.159522	โน	-0.5446282
-1.947434	โยน	-0.2936145
-2.151554	โอ	-0.5750106
-2.072372	ใกล้	-0.1705003
-2.034584	ใช่	-0.5446281
-1.68212	ใช้ท่า	-0.5997872
-1.470312	ไป	-0.4134122
-2.159522	ไม่	-0.5446282
-2.159522	ไม่ใช่	-0.5446282

\2-grams:
-0.8450981	<s> กดปุ่ม	0
-1.271067	<s> กดโอ	-3.576279e-07
-1.146128	<s> กลับ	2.384186e-07
-1.94776	<s> ชื่อ	-0.502675
-0.9030901	<s> ตอบ	1.370907e-06
-1.748188	<s> ทอย
-1.94776	<s> ทางไป	-0.502675
-1.447158	<s> บวก
-1.94776	<s> ปุ่มกด	-0.502675
-1.62325	<s> มา	-0.5026754
-1.748188	<s> สลับ
-1.049218	<s> สุ่ม	2.384186e-07
-1.447158	<s> สแนป	-2.384186e-07
-1.94776	<s> เลือก	-0.502675
-1.748188	<s> โกวาจี
-1.748188	<s> โยน
-1.579784	<s> ใช้ท่า	-0.502676
-1.322219	<s> ไป	-0.5026759
-0.9042196	กดปุ่ม ขวา	0.1918848
-1.263242	กดปุ่ม ขึ้น	0
-0.9042196	กดปุ่ม ซ้าย	0.1918848
-1.409369	กดปุ่ม บน	0.3679784
-1.263242	กดปุ่ม ลง	0
-1.409369	กดปุ่ม ล่าง	0.3679784
-1.041393	กดปุ่ม สามเหลี่ยม	0
-1.041393	กดปุ่ม สี่เหลี่ยม	0
-1.041393	กดปุ่ม เอ็ค	0
-1.041393	กดปุ่ม โอ	0
-0.6020604	กดโอ รัว	-0.425968
-0.6020604	กดโอ หลาย	-0.425968
-0.6020604	กดโอ เยอะ	-0.425968
-0.9542428	กลับ มา	-0.3899712
-0.4771212	กลับ ออก	-2.384186e-07
-0.6532122	กลับ ไป	-0.3899712
-0.1047355	ขวา </s>
-0.1760912	ขึ้น </s>
-0.6409785	ข้าง ขวา	-0.02996385
-0.6409785	ข้าง ซ้าย	-0.02996385
-0.7659162	ข้าง บน	0.1461297
-0.7659162	ข้าง ล่าง	0.1461297
-0.3424227	ชื่อ </s>
-1.041393	ชื่อ ธรรมดา	0
-1.041393	ชื่อ พิเศษ	0
-1.041393	ชื่อ หนี	0
-1.041393	ชื่อ เวทมนต์	0
-0.1047355	ซ้าย </s>
-0.154902	ตกลง </s>
-1.8653	ตกลง ตกลง
-1.8653	ตกลง ถูกต้อง
-1.8653	ตกลง เยส
-1.8653	ตกลง โน
-1.740363	ตกลง ใช่
-1.8653	ตกลง ไม่
-1.8653	ตกลง ไม่ใช่
-0.9232922	ตอบ ตกลง	0.0457578
-0.9232922	ตอบ ถูกต้อง	0.0457578
-0.9232922	ตอบ เยส	0.0457578
-0.9232922	ตอบ โน	0.0457578
-0.7983551	ตอบ ใช่	0.04575732
-0.9232922	ตอบ ไม่	0.0457578
-0.9232922	ตอบ ไม่ใช่	0.0457578
-0.154902	ถูกต้อง </s>
-1.8653	ถูกต้อง ตกลง
-1.8653	ถูกต้อง ถูกต้อง
-1.8653	ถูกต้อง เยส
-1.8653	ถูกต้อง โน
-1.740363	ถูกต้อง ใช่
-1.8653	ถูกต้อง ไม่
-1.8653	ถูกต้อง ไม่ใช่
-0.3010299	ทอย ลูกเต๋า
-0.3424227	ทางไป </s>
-1.041393	ทางไป ธรรมดา	0
-1.041393	ทางไป พิเศษ	0
-1.041393	ทางไป หนี	0
-1.041393	ทางไป เวทมนต์	0
-0.09691	ธรรมดา </s>
-0.06694651	บน </s>
-0.60206	บวก มัน
-0.60206	บวก เลย
-0.6020598	ปุ </s>
-0.6020598	ปุ สุด
-0.3424227	ปุ่มกด </s>
-1.041393	ปุ่มกด ธรรมดา	0
-1.041393	ปุ่มกด พิเศษ	0
-1.041393	ปุ่มกด หนี	0
-1.041393	ปุ่มกด เวทมนต์	0
-0.09691	พิเศษ </s>
-0.3010299	มัน เลย
-0.7403625	มา </s>
-0.4393326	มา ข้าง	4.768372e-07
-0.7403625	มา หน้า	-2.384186e-07
-0.3010299	รอบ </s>
-0.6532124	รัว </s>
-0.9542423	รัว รอบ
-0.9542431	รัว รัว	-0.1127043
-0.9542431	รัว หลาย	-0.1127043
-0.9542431	รัว เยอะ	-0.1127043
-0.1760912	ลง </s>
-0.1760913	ลูกเต๋า </s>
-0.06694651	ล่าง </s>
-0.3010299	สลับ เหรียญ
-0.09691	สามเหลี่ยม </s>
-0.09691	สี่เหลี่ยม </s>
-0.3010299	สุด </s>
-0.8808129	สุ่ม ชื่อ	-0.5149101
-0.8808129	สุ่ม ทางไป	-0.5149101
-0.8808129	สุ่ม ปุ่มกด	-0.5149101
-0.8808129	สุ่ม เลือก	-0.5149101
-0.5128368	สุ่ม ใช้ท่า	-0.5149094
-0.4771212	สแนป ปุ
-0.4771212	สแนป ใกล้
-0.09691	หนี </s>
-0.1760913	หน้า เดิม	-2.384186e-07
-0.6532124	หลาย </s>
-0.9542423	หลาย รอบ
-0.9542431	หลาย รัว	-0.1127043
-0.9542431	หลาย หลาย	-0.1127043
-0.9542431	หลาย เยอะ	-0.1127043
-0.6532129	ออก มา	-0.3899712
-0.3521823	ออก ไป	-0.3899712
-0.1760913	เดิม </s>
-0.154902	เยส </s>
-1.8653	เยส ตกลง
-1.8653	เยส ถูกต้อง
-1.8653	เยส เยส
-1.8653	เยส โน
-1.740363	เยส ใช่
-1.8653	เยส ไม่
-1.8653	เยส ไม่ใช่
-0.6532124	เยอะ </s>
-0.9542423	เยอะ รอบ
-0.9542431	เยอะ รัว	-0.1127043
-0.9542431	เยอะ หลาย	-0.1127043
-0.9542431	เยอะ เยอะ	-0.1127043
-0.1760913	เลย </s>
-0.3424227	เลือก </s>
-1.041393	เลือก ธรรมดา	0
-1.041393	เลือก พิเศษ	0
-1.041393	เลือก หนี	0
-1.041393	เลือก เวทมนต์	0
-0.09691	เวทมนต์ </s>
-0.3010299	เหรียญ </s>
-0.09691	เอ็ค </s>
-0.3010299	โกวาจี </s>
-0.154902	โน </s>
-1.8653	โน ตกลง
-1.8653	โน ถูกต้อง
-1.8653	โน เยส
-1.8653	โน โน
-1.740363	โน ใช่
-1.8653	โน ไม่
-1.8653	โน ไม่ใช่
-0.3010299	โยน ลูกเต๋า
-0.09691	โอ </s>
-0.6020598	ใกล้ </s>
-0.6020598	ใกล้ สุด
-0.154902	ใช่ </s>
-1.8653	ใช่ ตกลง
-1.8653	ใช่ ถูกต้อง
-1.8653	ใช่ เยส
-1.8653	ใช่ โน
-1.740363	ใช่ ใช่
-1.8653	ใช่ ไม่
-1.8653	ใช่ ไม่ใช่
-0.3424226	ใช้ท่า </s>
-1.041393	ใช้ท่า ธรรมดา	0
-1.041393	ใช้ท่า พิเศษ	0
-1.041393	ใช้ท่า หนี	0
-1.041393	ใช้ท่า เวทมนต์	0
-0.7403625	ไป </s>
-0.4393327	ไป ข้าง	0
-0.7403625	ไป หน้า	-2.384186e-07
-0.154902	ไม่ </s>
-1.8653	ไม่ ตกลง
-1.8653	ไม่ ถูกต้อง
-1.8653	ไม่ เยส
-1.8653	ไม่ โน
-1.740363	ไม่ ใช่
-1.8653	ไม่ ไม่
-1.8653	ไม่ ไม่ใช่
-0.154902	ไม่ใช่ </s>
-1.8653	ไม่ใช่ ตกลง
-1.8653	ไม่ใช่ ถูกต้อง
-1.8653	ไม่ใช่ เยส
-1.8653	ไม่ใช่ โน
-1.740363	ไม่ใช่ ใช่
-1.8653	ไม่ใช่ ไม่
-1.8653	ไม่ใช่ ไม่ใช่

\3-grams:
-0.9042196	<s> กดปุ่ม ขวา	0
-1.263242	<s> กดปุ่ม ขึ้น	0
-0.9042196	<s> กดปุ่ม ซ้าย	0
-1.409369	<s> กดปุ่ม บน	0
-1.263242	<s> กดปุ่ม ลง	0
-1.409369	<s> กดปุ่ม ล่าง	0
-1.041393	<s> กดปุ่ม สามเหลี่ยม	0
-1.041393	<s> กดปุ่ม สี่เหลี่ยม	0
-1.041393	<s> กดปุ่ม เอ็ค	0
-1.041393	<s> กดปุ่ม โอ	0
-0.6020603	<s> กดโอ รัว	7.152557e-07
-0.6020603	<s> กดโอ หลาย	7.152557e-07
-0.6020603	<s> กดโอ เยอะ	7.152557e-07
-0.9542429	<s> กลับ มา	0
-0.4771214	<s> กลับ ออก	0
-0.6532123	<s> กลับ ไป	0
-0.1760912	กดปุ่ม ขวา </s>
-0.09691	ข้าง ขวา </s>
-0.1760912	กดปุ่ม ขึ้น </s>
-0.6409786	มา ข้าง ขวา	0
-0.6409786	มา ข้าง ซ้าย	0
-0.7659163	มา ข้าง บน	0
-0.7659163	มา ข้าง ล่าง	0
-0.6409785	ไป ข้าง ขวา	0
-0.6409785	ไป ข้าง ซ้าย	0
-0.7659162	ไป ข้าง บน	0
-0.7659162	ไป ข้าง ล่าง	0
-0.6989701	<s> ชื่อ ธรรมดา	0
-0.6989701	<s> ชื่อ พิเศษ	0
-0.6989701	<s> ชื่อ หนี	0
-0.6989701	<s> ชื่อ เวทมนต์	0
-0.07918119	สุ่ม ชื่อ </s>
-0.1760912	กดปุ่ม ซ้าย </s>
-0.09691	ข้าง ซ้าย </s>
-0.1760914	ตอบ ตกลง </s>
-0.9232924	<s> ตอบ ตกลง	-4.768372e-07
-0.9232924	<s> ตอบ ถูกต้อง	-4.768372e-07
-0.9232924	<s> ตอบ เยส	-4.768372e-07
-0.9232924	<s> ตอบ โน	-4.768372e-07
-0.7983551	<s> ตอบ ใช่	4.768372e-07
-0.9232924	<s> ตอบ ไม่	-4.768372e-07
-0.9232924	<s> ตอบ ไม่ใช่	-4.768372e-07
-0.1760914	ตอบ ถูกต้อง </s>
-0.6989701	<s> ทางไป ธรรมดา	0
-0.6989701	<s> ทางไป พิเศษ	0
-0.6989701	<s> ทางไป หนี	0
-0.6989701	<s> ทางไป เวทมนต์	0
-0.07918119	สุ่ม ทางไป </s>
-0.09691	ชื่อ ธรรมดา </s>
-0.09691	ทางไป ธรรมดา </s>
-0.09691	ปุ่มกด ธรรมดา </s>
-0.09691	เลือก ธรรมดา </s>
-0.09691	ใช้ท่า ธรรมดา </s>
-0.1760912	กดปุ่ม บน </s>
-0.09691	ข้าง บน </s>
-0.6989701	<s> ปุ่มกด ธรรมดา	0
-0.6989701	<s> ปุ่มกด พิเศษ	0
-0.6989701	<s> ปุ่มกด หนี	0
-0.6989701	<s> ปุ่มกด เวทมนต์	0
-0.07918119	สุ่ม ปุ่มกด </s>
-0.09691	ชื่อ พิเศษ </s>
-0.09691	ทางไป พิเศษ </s>
-0.09691	ปุ่มกด พิเศษ </s>
-0.09691	เลือก พิเศษ </s>
-0.09691	ใช้ท่า พิเศษ </s>
-0.09691	<s> มา ข้าง	0
-0.1760912	กลับ มา หน้า	0
-0.1760912	ออก มา </s>
-0.6020603	กดโอ รัว รัว	1.639128e-07
-0.6020603	กดโอ รัว หลาย	1.639128e-07
-0.6020603	กดโอ รัว เยอะ	1.639128e-07
-0.3979399	รัว รัว </s>
-0.3979399	หลาย รัว </s>
-0.3979399	เยอะ รัว </s>
-0.1760912	กดปุ่ม ลง </s>
-0.1760912	กดปุ่ม ล่าง </s>
-0.09691	ข้าง ล่าง </s>
-0.09691	กดปุ่ม สามเหลี่ยม </s>
-0.09691	กดปุ่ม สี่เหลี่ยม </s>
-0.8808129	<s> สุ่ม ชื่อ	0
-0.8808129	<s> สุ่ม ทางไป	0
-0.8808129	<s> สุ่ม ปุ่มกด	0
-0.8808129	<s> สุ่ม เลือก	0
-0.5128369	<s> สุ่ม ใช้ท่า	-5.960464e-07
-0.4771211	<s> สแนป ปุ
-0.4771211	<s> สแนป ใกล้
-0.09691	ชื่อ หนี </s>
-0.09691	ทางไป หนี </s>
-0.09691	ปุ่มกด หนี </s>
-0.09691	เลือก หนี </s>
-0.09691	ใช้ท่า หนี </s>
-0.1760912	มา หน้า เดิม	0
-0.1760912	ไป หน้า เดิม	0
-0.6020603	กดโอ หลาย รัว	1.639128e-07
-0.6020603	กดโอ หลาย หลาย	1.639128e-07
-0.6020603	กดโอ หลาย เยอะ	1.639128e-07
-0.3979399	รัว หลาย </s>
-0.3979399	หลาย หลาย </s>
-0.3979399	เยอะ หลาย </s>
-0.6532128	กลับ ออก มา	0
-0.3521821	กลับ ออก ไป	0
-0.1760912	หน้า เดิม </s>
-0.1760914	ตอบ เยส </s>
-0.6020603	กดโอ เยอะ รัว	1.639128e-07
-0.6020603	กดโอ เยอะ หลาย	1.639128e-07
-0.6020603	กดโอ เยอะ เยอะ	1.639128e-07
-0.3979399	รัว เยอะ </s>
-0.3979399	หลาย เยอะ </s>
-0.3979399	เยอะ เยอะ </s>
-0.6989701	<s> เลือก ธรรมดา	0
-0.6989701	<s> เลือก พิเศษ	0
-0.6989701	<s> เลือก หนี	0
-0.6989701	<s> เลือก เวทมนต์	0
-0.07918119	สุ่ม เลือก </s>
-0.09691	ชื่อ เวทมนต์ </s>
-0.09691	ทางไป เวทมนต์ </s>
-0.09691	ปุ่มกด เวทมนต์ </s>
-0.09691	เลือก เวทมนต์ </s>
-0.09691	ใช้ท่า เวทมนต์ </s>
-0.09691	กดปุ่ม เอ็ค </s>
-0.1760914	ตอบ โน </s>
-0.09691	กดปุ่ม โอ </s>
-0.1760912	ตอบ ใช่ </s>
-0.6989698	<s> ใช้ท่า ธรรมดา	0
-0.6989698	<s> ใช้ท่า พิเศษ	0
-0.6989698	<s> ใช้ท่า หนี	0
-0.6989698	<s> ใช้ท่า เวทมนต์	0
-0.07918131	สุ่ม ใช้ท่า </s>
-0.09690988	<s> ไป ข้าง	4.768372e-07
-0.1760912	กลับ ไป หน้า	0
-0.1760912	ออก ไป </s>
-0.1760914	ตอบ ไม่ </s>
-0.1760914	ตอบ ไม่ใช่ </s>

\4-grams:
-0.1760912	<s> กดปุ่ม ขวา </s>
-0.09691	มา ข้าง ขวา </s>
-0.09691	ไป ข้าง ขวา </s>
-0.1760912	<s> กดปุ่ม ขึ้น </s>
-0.6409786	<s> มา ข้าง ขวา	0
-0.6409786	<s> มา ข้าง ซ้าย	0
-0.7659163	<s> มา ข้าง บน	0
-0.7659163	<s> มา ข้าง ล่าง	0
-0.6409786	<s> ไป ข้าง ขวา	0
-0.6409786	<s> ไป ข้าง ซ้าย	0
-0.7659163	<s> ไป ข้าง บน	0
-0.7659163	<s> ไป ข้าง ล่าง	0
-0.07918119	<s> สุ่ม ชื่อ </s>
-0.1760912	<s> กดปุ่ม ซ้าย </s>
-0.09691	มา ข้าง ซ้าย </s>
-0.09691	ไป ข้าง ซ้าย </s>
-0.1760912	<s> ตอบ ตกลง </s>
-0.1760912	<s> ตอบ ถูกต้อง </s>
-0.07918119	<s> สุ่ม ทางไป </s>
-0.09691	<s> ชื่อ ธรรมดา </s>
-0.09691	<s> ทางไป ธรรมดา </s>
-0.09691	<s> ปุ่มกด ธรรมดา </s>
-0.09691	<s> เลือก ธรรมดา </s>
-0.09691	<s> ใช้ท่า ธรรมดา </s>
-0.1760912	<s> กดปุ่ม บน </s>
-0.09691	มา ข้าง บน </s>
-0.09691	ไป ข้าง บน </s>
-0.07918119	<s> สุ่ม ปุ่มกด </s>
-0.09691	<s> ชื่อ พิเศษ </s>
-0.09691	<s> ทางไป พิเศษ </s>
-0.09691	<s> ปุ่มกด พิเศษ </s>
-0.09691	<s> เลือก พิเศษ </s>
-0.09691	<s> ใช้ท่า พิเศษ </s>
-0.1760912	<s> กลับ มา หน้า	0
-0.1760912	กลับ ออก มา </s>
-0.6020606	<s> กดโอ รัว รัว	-1.639128e-07
-0.6020606	<s> กดโอ รัว หลาย	-1.639128e-07
-0.6020606	<s> กดโอ รัว เยอะ	-1.639128e-07
-0.3979402	กดโอ รัว รัว </s>
-0.3979402	กดโอ หลาย รัว </s>
-0.3979402	กดโอ เยอะ รัว </s>
-0.1760912	<s> กดปุ่ม ลง </s>
-0.1760912	<s> กดปุ่ม ล่าง </s>
-0.09691	มา ข้าง ล่าง </s>
-0.09691	ไป ข้าง ล่าง </s>
-0.09691	<s> กดปุ่ม สามเหลี่ยม </s>
-0.09691	<s> กดปุ่ม สี่เหลี่ยม </s>
-0.09691	<s> ชื่อ หนี </s>
-0.09691	<s> ทางไป หนี </s>
-0.09691	<s> ปุ่มกด หนี </s>
-0.09691	<s> เลือก หนี </s>
-0.09691	<s> ใช้ท่า หนี </s>
-0.1760912	กลับ มา หน้า เดิม	0
-0.1760912	กลับ ไป หน้า เดิม	0
-0.6020606	<s> กดโอ หลาย รัว	-1.639128e-07
-0.6020606	<s> กดโอ หลาย หลาย	-1.639128e-07
-0.6020606	<s> กดโอ หลาย เยอะ	-1.639128e-07
-0.3979402	กดโอ รัว หลาย </s>
-0.3979402	กดโอ หลาย หลาย </s>
-0.3979402	กดโอ เยอะ หลาย </s>
-0.6532128	<s> กลับ ออก มา	0
-0.3521821	<s> กลับ ออก ไป	0
-0.1760912	มา หน้า เดิม </s>
-0.1760912	ไป หน้า เดิม </s>
-0.1760912	<s> ตอบ เยส </s>
-0.6020606	<s> กดโอ เยอะ รัว	-1.639128e-07
-0.6020606	<s> กดโอ เยอะ หลาย	-1.639128e-07
-0.6020606	<s> กดโอ เยอะ เยอะ	-1.639128e-07
-0.3979402	กดโอ รัว เยอะ </s>
-0.3979402	กดโอ หลาย เยอะ </s>
-0.3979402	กดโอ เยอะ เยอะ </s>
-0.07918119	<s> สุ่ม เลือก </s>
-0.09691	<s> ชื่อ เวทมนต์ </s>
-0.09691	<s> ทางไป เวทมนต์ </s>
-0.09691	<s> ปุ่มกด เวทมนต์ </s>
-0.09691	<s> เลือก เวทมนต์ </s>
-0.09691	<s> ใช้ท่า เวทมนต์ </s>
-0.09691	<s> กดปุ่ม เอ็ค </s>
-0.1760912	<s> ตอบ โน </s>
-0.09691	<s> กดปุ่ม โอ </s>
-0.1760914	<s> ตอบ ใช่ </s>
-0.07918119	<s> สุ่ม ใช้ท่า </s>
-0.1760912	<s> กลับ ไป หน้า	0
-0.1760912	กลับ ออก ไป </s>
-0.1760912	<s> ตอบ ไม่ </s>
-0.1760912	<s> ตอบ ไม่ใช่ </s>

\5-grams:
-0.09691	<s> มา ข้าง ขวา </s>
-0.09691	<s> ไป ข้าง ขวา </s>
-0.09691	<s> มา ข้าง ซ้าย </s>
-0.09691	<s> ไป ข้าง ซ้าย </s>
-0.09691	<s> มา ข้าง บน </s>
-0.09691	<s> ไป ข้าง บน </s>
-0.1760912	<s> กลับ ออก มา </s>
-0.3979399	<s> กดโอ รัว รัว </s>
-0.3979399	<s> กดโอ หลาย รัว </s>
-0.3979399	<s> กดโอ เยอะ รัว </s>
-0.09691	<s> มา ข้าง ล่าง </s>
-0.09691	<s> ไป ข้าง ล่าง </s>
-0.1760912	<s> กลับ มา หน้า เดิม	0
-0.1760912	<s> กลับ ไป หน้า เดิม	0
-0.3979399	<s> กดโอ รัว หลาย </s>
-0.3979399	<s> กดโอ หลาย หลาย </s>
-0.3979399	<s> กดโอ เยอะ หลาย </s>
-0.1760912	กลับ มา หน้า เดิม </s>
-0.1760912	กลับ ไป หน้า เดิม </s>
-0.3979399	<s> กดโอ รัว เยอะ </s>
-0.3979399	<s> กดโอ หลาย เยอะ </s>
-0.3979399	<s> กดโอ เยอะ เยอะ </s>
-0.1760912	<s> กลับ ออก ไป </s>

\6-grams:
-0.1760912	<s> กลับ มา หน้า เดิม </s>
-0.1760912	<s> กลับ ไป หน้า เดิม </s>

\end\
